76 10
gensim -0.005300782 0.0021599818 0.051125698 0.089945525 -0.092967495 -0.07124555 0.065100454 0.089782916 -0.050927285 -0.038026303
is 0.073907696 -0.015446641 -0.045368444 0.06551775 -0.048625365 -0.018042421 0.029073702 0.009825021 -0.08317431 -0.09472426
of 0.07325115 0.050539233 0.067572236 0.007468265 0.06352207 -0.034077454 -0.009014773 0.057840362 -0.07597213 -0.039813623
for -0.07506717 -0.009382172 0.09545075 -0.07319304 -0.023385542 -0.019391771 0.08095785 -0.059264738 0.00019990854 -0.04770672
processing -0.09591661 0.050056238 -0.087605946 -0.043894872 -0.000371427 -0.0029018328 -0.07639713 0.09617319 0.04956072 0.09213866
source -0.081334606 0.04473411 -0.04143553 0.008176564 0.08498461 -0.044651713 0.045531224 -0.06781395 -0.036112748 0.09366968
as -0.015639871 0.0028061762 -0.041279975 -0.077018894 -0.015129428 0.024794923 -0.007810205 0.055388372 -0.028703064 0.022036806
on 0.054751843 0.0832302 -0.014611408 -0.09222158 0.043710783 0.0056722406 0.07486425 -0.008035262 -0.026954575 -0.0878919
word -0.008566781 0.028251013 0.053950135 0.07049282 -0.057026833 0.018613048 0.06094538 -0.04800602 -0.031074965 0.06795096
are 0.016309578 0.001844008 0.034707412 0.0021713655 0.096236154 0.050609805 -0.08903908 -0.070326485 0.00890027 0.06378148
a -0.0861396 0.036670573 0.051979106 0.05738707 0.07478922 -0.06170385 0.011281709 0.06059434 -0.028750893 -0.06199192
and -0.004057948 -0.08372937 -0.055987403 0.07093801 0.033538327 0.07222375 0.068140425 0.07541869 -0.038129594 -0.0057184957
words 0.023531975 -0.045196746 0.08390387 -0.09863736 0.067707844 0.029142186 -0.04927529 0.044047803 -0.017492088 0.06701804
runs 0.099608384 -0.0436227 -0.0059585446 -0.056935936 0.03858213 0.027908333 0.06902037 0.061074153 0.09508508 0.09271517
linux 0.07913094 -0.06999152 -0.09161271 -0.0035790787 -0.031049548 0.07901426 0.0595822 -0.0154727 0.014877945 0.017865326
os 0.07831081 -0.09522717 -0.00197249 0.034585174 -0.009384748 0.08385395 0.09050659 0.06546918 -0.0077518728 0.076852806
windows -0.08538214 0.031990003 -0.046217993 -0.050864346 0.035935607 0.05366282 0.077941224 -0.05759522 0.07393587 0.06615008
vector -0.03714978 -0.08753551 0.054429736 0.06503385 -0.007823048 -0.06718388 -0.07074451 -0.024923706 0.051200572 -0.03681038
x -0.09370828 0.03816413 0.049002226 -0.06450663 0.012203874 -0.020659583 0.0008122173 -0.09868421 0.026223667 -0.047637064
well 0.010935918 -0.015895275 0.022031778 -0.0789076 -0.02722223 0.026631117 0.05379842 -0.023841135 -0.095779955 0.04478757
any 0.0011372084 0.030475548 -0.06790054 -0.013920112 0.0767485 0.07343489 -0.036223464 0.0265863 -0.08401012 0.061626006
representations -0.046400487 -0.031604014 0.09310223 0.008702694 0.07495087 -0.06076726 0.051643725 0.099251226 -0.0846706 -0.051468
limitations -0.070553504 -0.048763942 -0.037688274 -0.08529265 0.07952679 -0.048403066 0.08458647 0.052612003 -0.06592802 0.03941489
creates 0.054648243 -0.07433389 -0.07414223 -0.02478635 -0.086291716 -0.015862819 -0.0038970623 0.033031456 0.014151452 -0.008943305
word2vec -0.0559177 0.017294224 -0.008923666 0.06788091 0.039803434 0.04531124 0.014467372 -0.026935102 -0.043821212 -0.0103633115
text 0.014266988 -0.026403178 -0.070723884 -0.078113206 -0.091154635 -0.059357263 -0.018351015 -0.0432077 -0.06485956 -0.0373337
platform 0.043082844 -0.037588447 0.08370764 0.015230117 -0.07228259 0.094473645 0.07677197 0.05511582 -0.06925834 0.057919353
library 0.04008977 0.05185804 0.04257387 0.019267906 -0.031628575 0.08354178 0.09638659 0.03789274 -0.0286408 -6.038632e-05
powerful 0.012191152 -0.08453261 -0.08220933 -0.002326531 0.012364151 -0.057402186 -0.047059886 -0.07344902 0.08310008 0.0009749085
representation -0.045107745 0.056997463 0.09174643 -0.041059833 0.07968238 0.05375928 0.058964793 0.0052799643 0.08203708 -0.07027518
type -0.08244975 0.09285848 -0.0021363646 -0.019853573 0.046062306 -0.040974315 0.027776578 0.06955718 0.0603544 -0.075264074
embeddings 0.093836844 0.046605926 0.039692767 -0.06255038 0.08469356 -0.02156203 0.08852222 -0.05351069 -0.08161554 0.06795848
study 0.016731117 -0.021956336 0.09518707 0.09488381 -0.09767164 0.025063382 0.061596088 0.03878191 0.020119209 0.004246514
field 0.0068013095 -0.03836478 -0.07126236 -0.02099692 0.03934217 0.08805035 0.0928627 -0.05960877 -0.094635524 0.09721354
exciting 0.0344848 0.051471457 0.06285656 -0.028212259 0.07330455 0.028147878 0.028965684 -0.023798995 -0.031890847 -0.024274917
an 0.042875938 0.00060608593 -0.09580969 -0.09677155 -0.061516587 -0.0013397479 0.020118073 0.09434043 0.055566907 -0.04325653
language 0.002842835 0.049632438 0.07703541 -0.011426932 0.043313827 -0.05819022 -0.00805541 0.08091027 -0.023644596 -0.09672607
other 0.057984784 -0.03971577 -0.01204685 0.09988019 -0.022721391 -0.047508255 -0.052437097 0.069988005 -0.058056172 0.020753901
that -0.05243301 0.06088533 0.043558806 0.02596986 -0.015084036 -0.027300991 0.09056056 0.05218556 -0.022228898 -0.09490728
ram -0.074356824 -0.010886383 -0.007879707 -0.025750965 0.09707014 -0.0045112097 0.059144206 -0.07444398 -0.02551517 -0.05575164
see -0.07133623 0.012334687 -0.07177765 -0.02245814 0.037144877 0.05831678 0.0121360365 0.021035338 -0.041307002 0.072102584
support -0.0630107 0.046397604 -0.08227911 0.020253114 -0.049676474 -0.042444684 -0.031043002 0.05642762 0.057798207 -0.049967825
can 0.007778739 -0.085077435 0.07827756 0.09245819 -0.027234482 0.008136028 0.007821301 0.054902945 -0.086558595 0.0056815897
process 0.06876678 0.022180453 0.011463261 -0.093292415 0.08482042 -0.06263863 -0.02965441 0.034914516 -0.00815407 0.013907326
arbitrarily 0.017885678 -0.06831765 -0.0971358 0.09035263 0.0620697 -0.06909979 0.034083966 0.0020013815 0.04730068 -0.07127415
large 0.04029127 0.04339724 0.09970432 -0.044755764 -0.013755247 -0.07324528 -0.09680548 -0.09071862 -0.010499984 -0.0652333
corpora 0.04851849 -0.0618506 0.025451284 0.0072315056 -0.03372028 -0.009587756 0.10046458 0.09161168 -0.045242947 0.09054231
using -0.056253754 0.059144106 -0.030869925 0.034241747 0.030152565 0.068977185 -0.023456264 0.087809876 0.07544437 -0.09570628
datastreamed -0.07995352 -0.07649387 0.029429745 -0.028093651 -0.06917242 -0.08143803 0.08339466 0.020095333 -0.09380856 -0.048344053
algorithms 0.031404283 -0.047190767 0.052854147 -0.042354345 0.026474519 -0.080433294 0.06223418 0.048245963 0.007715049 0.030027233
there -0.087214336 0.021190012 -0.008648082 -0.093169235 -0.094204 -0.014115847 0.044601515 0.037094973 -0.065297276 -0.06891269
no -0.049849313 -0.023146877 -0.072340146 -0.096192434 -0.02739183 -0.08352267 -0.060083803 -0.056664627 -0.023919145 -0.017357519
dataset -0.089462444 -0.007492793 0.08150608 0.07686855 -0.072087266 -0.036632538 0.031406056 -0.09563296 0.014480074 0.0649959
must 0.057366095 -0.087629914 -0.04518022 -0.0814173 0.00060391927 0.09269792 0.059991922 0.05069471 0.050412837 -0.03265762
fit 0.095609725 -0.0737323 -0.07273359 -0.02277296 -0.0076588774 -0.032176975 -0.005601909 0.07482605 -0.0074650617 -0.01670645
in 0.027529672 -0.08377288 0.07863969 0.08536718 -0.09584525 0.024481818 0.09939571 -0.076610066 -0.07000883 -0.07755246
business 0.08398531 -0.0068423366 0.09157579 -0.08152632 0.03745271 0.02620646 0.0075102677 0.02328321 -0.0749285 -0.09384509
arrangements 0.023586681 0.06147207 0.079923354 0.05738232 -0.0077147805 0.08295838 -0.09331245 0.034068707 0.0025207573 0.038460385
supports 0.07409177 -0.0680049 0.056233883 -0.09550368 -0.008074015 -0.086947195 -0.049874425 0.093070954 -0.019715678 0.028397072
commercial 0.09089496 0.08929684 -0.08200238 -0.030216604 0.09901162 0.051032774 -0.01572284 -0.086855575 0.02932237 -0.067022085
python 0.08152134 -0.04486325 -0.010591683 0.01004413 -0.0018514337 0.011495085 0.06172637 6.802949e-05 -0.033267573 -0.015337258
numpyall 0.05893448 0.015082513 -0.0071812375 0.093391694 -0.049176406 -0.008354532 0.09189787 0.067541555 0.014895847 -0.08890103
code 0.011536129 -0.022962417 0.093757726 0.012115141 0.014873367 0.024020763 -0.01823547 -0.049984604 0.0021092314 -0.020300386
hosted 0.06621917 0.08921149 -0.006539755 0.029835165 -0.06108972 0.01702666 -0.06885515 -0.08698736 -0.0595878 -0.08991334
github 0.07299504 -0.057994828 0.08281174 -0.072490215 0.034404613 0.09669557 -0.07747707 -0.09951278 -0.04388306 -0.027219243
under -0.002695279 -0.08848626 -0.08604377 0.027938569 -0.08195102 -0.09079614 -0.023100138 -0.08626507 -0.070954524 -0.08432974
the -0.0027022185 -0.046037044 0.06654795 0.015285453 -0.03331934 0.06102145 -0.059465457 -0.046644613 -0.072841264 -0.043925304
gnu -0.018070776 0.064854816 -0.027588096 0.049174245 0.06906612 -0.07469572 0.04579656 0.061237335 -0.0297132 0.06601328
lgpl 0.061575588 -0.06467549 -0.06755427 0.025343888 -0.016196597 -0.06069364 0.09521295 -0.051225875 -0.066122584 -0.0015954997
license -0.026956988 0.0043942356 -0.035351135 -0.0041789515 -0.0070277164 0.008307245 0.08214137 -0.057408914 -0.016719721 0.055636615
maintained 0.08205162 -0.04471204 0.090001635 0.08252845 -0.044227913 0.0029330354 0.04314488 -0.039261147 -0.056369923 -0.06549291
by -0.006655985 -0.0029818555 0.044658933 -0.024709946 -0.0016965048 0.02461624 0.0487097 -0.0002700438 -0.06363117 -0.09265956
its 0.00037829834 0.066504784 0.014705907 -0.08960662 -0.07937628 0.065465055 -0.03759782 0.06254874 -0.067201145 0.084535256
open -0.06474837 0.0326478 -0.010250574 -0.067660116 -0.032875117 -0.011659793 -0.05444753 -0.012003658 -0.076464854 0.026177535
community 0.090851985 -0.023849495 -0.009696826 0.03527224 0.08675753 -0.05930999 -0.06877209 -0.029273404 0.0911128 0.008442998
natural -0.08668287 -0.014532766 0.094765775 -0.07551538 -0.053650744 0.09312301 -0.08959925 0.03828002 0.0064277006 0.06638843
